{
    "layers": [
        {
            "name": "input",
            "type": "input",
            "size": 39
        },
        {
            "name": "blstm_level_0",
            "type": "blstm",
            "size": 10,
            "bias": 1
        },
        {
            "name": "subsample_level_0",
            "type": "feedforward_tanh",
            "size": 5,
            "bias": 0
        },
        {
            "name": "blstm_level_1",
            "type": "blstm",
            "size": 10,
            "bias": 1
        },
        {
            "name": "subsample_level_1",
            "type": "feedforward_tanh",
            "size": 5,
            "bias": 0
        },
        {
            "name": "blstm_level_2",
            "type": "blstm",
            "size": 10,
            "bias": 1
        },
        {
            "name": "output",
            "type": "softmax",
            "size": 51,
            "bias": 1
        },
        {
            "name": "postoutput",
            "type": "multiclass_classification",
            "size": 51
        }
    ],
    "weights": {
        "blstm_level_0": {
            "input": [
                0.0527645,
                0.0523833,
                -0.096097,
                0.0411632,
                -0.0625593,
                -0.016886,
                -0.0141746,
                -0.00122163,
                0.0808723,
                0.0350385,
                0.035002,
                0.0841893,
                -0.0874686,
                0.00187182,
                0.0324531,
                0.0110895,
                -0.0685228,
                0.0647101,
                0.0750409,
                -0.0627614,
                0.0617535,
                -0.0671173,
                -0.0622751,
                0.0665005,
                0.0602215,
                0.0497537,
                -0.0583542,
                -0.0586153,
                0.0420974,
                -0.047149,
                0.0909084,
                -0.0421352,
                -0.014257,
                0.089113,
                -0.0685227,
                0.0994196,
                -0.0162148,
                0.0831589,
                0.0410119,
                -0.0309873,
                -0.0504381,
                0.0179515,
                0.0568919,
                -0.0900989,
                -0.00132278,
                -0.0812083,
                0.0714655,
                -0.035089,
                0.0657218,
                0.0123781,
                -0.0500137,
                -0.0731136,
                0.0300669,
                0.0577567,
                -0.0678154,
                0.0998237,
                -0.0400476,
                0.0823348,
                -0.0152292,
                -0.0920188,
                -0.0561445,
                -0.0783568,
                0.0568349,
                -0.0740007,
                -0.0655568,
                -0.0304036,
                -0.0260512,
                -0.0913592,
                -0.0383065,
                0.0653678,
                0.010939,
                -0.0631533,
                0.0899528,
                0.00611765,
                0.0521915,
                0.0823035,
                -0.0376349,
                0.0746384,
                -0.0674951,
                0.0598761,
                -0.0317656,
                0.0820539,
                -0.045292,
                -0.0497483,
                -0.0688157,
                0.027262,
                -0.0345756,
                -0.0776932,
                0.0972115,
                -0.0401759,
                -0.0311732,
                0.0261327,
                -0.0682328,
                0.0404182,
                -0.051732,
                -0.0485582,
                -0.0396249,
                -0.0924825,
                0.0269583,
                -0.0454365,
                -0.0114671,
                0.0648357,
                -0.000270492,
                0.0148789,
                0.0539419,
                -0.0957479,
                0.0860889,
                0.023553,
                0.0718027,
                -0.0662864,
                -0.0224553,
                0.0959165,
                -0.00300336,
                0.0930749,
                0.021755,
                0.0988568,
                -0.0839249,
                0.0859806,
                -0.0327316,
                -0.0657546,
                0.03238,
                0.0387822,
                -0.0839812,
                0.0479199,
                -0.0453002,
                0.0607351,
                0.0948247,
                0.0550232,
                -0.081264,
                -0.0116582,
                -0.0651443,
                -0.0597217,
                -0.0552094,
                0.0916935,
                -0.00738309,
                -0.0679082,
                -0.0769119,
                -0.0837983,
                0.00558849,
                -0.0428781,
                -0.0589154,
                -0.0846793,
                -0.0314589,
                -0.0715845,
                -0.0121495,
                -0.0102079,
                0.0083667,
                0.0417559,
                -0.0921518,
                -0.0477998,
                0.0121376,
                0.0740037,
                0.0705232,
                -0.0591828,
                -0.0469984,
                -0.0530008,
                -0.0679919,
                0.06864,
                0.029817,
                0.00321339,
                -0.0349945,
                0.0622104,
                0.0926224,
                -0.00597565,
                -0.00756153,
                -0.0567566,
                0.0810135,
                0.0196692,
                0.0711671,
                0.0923306,
                0.0522082,
                -0.0208522,
                0.0561847,
                -0.0107444,
                -0.0333558,
                -0.0499097,
                0.0367616,
                -0.0883825,
                -0.07553,
                0.0189348,
                -0.0359901,
                0.0239101,
                0.0256704,
                -0.0257545,
                0.0621558,
                0.0761641,
                -0.0993877,
                0.0867649,
                0.0836229,
                0.0969285,
                -0.0202101,
                -0.0575964,
                0.0437672,
                -0.00335435,
                0.043268,
                -0.0434943,
                0.0803559,
                -0.0132804,
                0.0713087,
                -0.0635595,
                0.0242901,
                0.0240421,
                -0.0350143,
                -0.0919451,
                -0.0207325,
                0.0869471,
                0.0561612,
                -0.00654906,
                -0.0478176,
                -0.0839314,
                -0.0559605,
                -0.00400583,
                -0.0783941,
                0.0129384,
                0.0417863,
                0.0752704,
                -0.0557046,
                0.0527535,
                0.0551636,
                0.0211765,
                0.0821291,
                -0.0375059,
                -0.015684,
                0.00258145,
                0.0121796,
                -0.0361644,
                0.0594915,
                -0.0686741,
                -0.0129771,
                -0.0233718,
                -0.0165944,
                -0.0292263,
                0.0796554,
                0.0770521,
                -0.051791,
                -0.034262,
                -0.0868623,
                -0.0568924,
                0.0927051,
                -0.018389,
                -0.0400295,
                -0.0431774,
                0.0604516,
                -0.0969479,
                -0.0121767,
                -0.0049219,
                0.0399349,
                -0.0923559,
                -0.0627547,
                -0.0487036,
                -0.0912509,
                0.081177,
                0.0264626,
                0.0198079,
                0.0192761,
                -0.0578223,
                0.0678411,
                -0.081504,
                -0.0819439,
                0.089113,
                0.0797058,
                0.046714,
                0.0428203,
                -0.0442663,
                -0.00546665,
                -0.0626796,
                0.0151699,
                -0.0671906,
                -0.0882888,
                -0.0498853,
                -0.0362362,
                -0.0302295,
                0.0749764,
                -0.0730295,
                0.0303545,
                0.0937973,
                -0.0914765,
                -0.0831231,
                0.0490612,
                -0.046098,
                -0.0167509,
                0.055149,
                -0.0184319,
                -0.0735222,
                0.0850753,
                -0.0594708,
                0.0804744,
                0.0238794,
                0.0793303,
                -0.0663389,
                -0.0444174,
                0.0440966,
                0.0131691,
                -0.044411,
                0.0663515,
                0.0335856,
                0.00665013,
                0.0701722,
                -0.0548627,
                -0.0409593,
                0.0810484,
                0.00712147,
                0.0568059,
                0.0123349,
                0.0993774,
                -0.0472938,
                0.0365615,
                0.00277203,
                -0.00776445,
                0.00926863,
                -0.00344179,
                0.05604,
                -0.0216873,
                0.0975531,
                -0.0748677,
                0.0403808,
                0.011338,
                0.0633279,
                -0.0138013,
                -0.0939224,
                0.0336842,
                0.0653475,
                -0.0140937,
                0.0924278,
                0.0627447,
                0.0267465,
                0.0659789,
                -0.0489597,
                0.0718911,
                0.00860101,
                -0.000403015,
                -0.00183318,
                0.0167045,
                -0.0153691,
                0.0897899,
                -0.0951555,
                -0.0965689,
                -0.0961639,
                -0.0812187,
                0.061167,
                -0.0835963,
                -0.0990996,
                0.0268323,
                0.0679749,
                -0.0891697,
                -0.0469161,
                -0.0268021,
                0.032133,
                0.0550419,
                0.0748543,
                -0.0282167,
                -0.0618118,
                -0.0701184,
                0.0293124,
                -0.0109185,
                -0.0440112,
                -0.0376845,
                0.0534675,
                -0.0286406,
                -0.0432103,
                -0.0690038,
                0.0578777,
                0.0125977,
                0.0447016,
                0.0458482,
                -0.0283344,
                0.0458956,
                -0.0714859,
                0.066498,
                0.067803,
                -0.0201631,
                0.0272107,
                0.0547117,
                0.0732404,
                -0.0311134,
                -0.043081,
                0.0656333,
                -0.0856819,
                -0.0517993,
                0.0361699,
                -0.00182241,
                -0.00601947,
                0.0478556,
                0.0308877,
                -0.00641243,
                -0.033651,
                -0.0489865,
                -0.0519359,
                0.0866933,
                -0.0674414,
                0.0178932,
                0.0391521,
                -0.00485695,
                -0.0474062,
                0.0719821,
                0.0940972,
                -0.0412152,
                -0.0566629,
                0.0921945,
                0.0309981,
                0.012826,
                -0.0844673,
                0.067734,
                -0.0355201,
                0.0464939,
                0.0158612,
                -0.0962701,
                -0.0488718,
                0.0216337,
                0.035363,
                0.00937442,
                -0.0143764,
                0.00604225,
                0.0197863,
                0.0233832,
                -0.0757152,
                0.0450044,
                -0.0814504,
                -0.029134,
                -0.0195757,
                -0.060283,
                -0.0895628,
                0.0146099,
                0.0352143,
                0.000427841,
                0.0248388,
                0.0281215,
                -0.0469006,
                0.0823407,
                -0.0317898,
                0.0385425,
                0.0133838,
                -0.00183206,
                -0.0645115,
                0.0867756,
                -0.0881142,
                0.0692481,
                0.058694,
                0.0883177,
                0.0947949,
                -0.0268906,
                0.0670722,
                0.0517934,
                -0.0483116,
                0.0259621,
                -0.0648077,
                -0.0974999,
                -0.051701,
                -0.0437559,
                0.0326598,
                0.086209,
                0.0802173,
                0.0351127,
                -0.0596356,
                0.0500453,
                0.0574238,
                0.0243382,
                0.0507182,
                0.0507785,
                0.0675454,
                0.0333289,
                -0.000999988,
                0.0662424,
                0.0302172,
                -0.0955679,
                0.0765772,
                -0.0257619,
                0.0299297,
                -0.0315748,
                0.00887078,
                0.0735735,
                0.0549839,
                -0.0768776,
                -0.0362545,
                -0.0996203,
                0.0869664,
                -0.0530456,
                0.0961695,
                0.0233218,
                -0.041527,
                0.00348636,
                0.0692114,
                0.0942165,
                -0.00502936,
                0.04205,
                -0.0718688,
                -0.0236075,
                -0.0782884,
                0.050333,
                0.0613382,
                -0.0401921,
                0.0861944,
                -0.0595959,
                0.0663078,
                -0.0180512,
                -0.0446854,
                0.00357244,
                -0.065035,
                -0.0688609,
                0.0259731,
                -0.0850446,
                -0.0842279,
                -0.0861226,
                0.010043,
                -0.00258565,
                0.030826,
                0.0299819,
                -0.0962331,
                0.0997768,
                -0.0376332,
                0.0211595,
                -0.0705462,
                0.0742852,
                0.0877544,
                0.0225211,
                0.0893148,
                0.00666367,
                0.0452205,
                0.0543946,
                -0.00364373,
                0.0885927,
                -0.0711454,
                -0.0962709,
                -0.0014461,
                -0.0449268,
                -0.0123229,
                -0.0312888,
                -0.0357557,
                0.0446014,
                -0.0869024,
                -0.0718323,
                0.0152194,
                0.021466,
                -0.0665233,
                -0.0694047,
                0.00712338,
                -0.0312635,
                0.0305045,
                -0.0813173,
                -0.0532905,
                -0.00673774,
                -0.0658506,
                0.0896562,
                0.0831246,
                -0.0333348,
                0.0693224,
                -0.0966241,
                -0.0290853,
                -0.0720248,
                -0.0253491,
                -0.0992311,
                0.0146715,
                -0.0666018,
                -0.01886,
                -0.0865004,
                0.0790595,
                -0.0913013,
                0.0147863,
                -0.00537481,
                0.0117466,
                0.0155338,
                -0.0705382,
                0.0701054,
                0.0102219,
                0.0600872,
                0.0647663,
                -0.0248924,
                -0.0624132,
                -0.0584719,
                -0.0344865,
                0.072943,
                0.0891027,
                0.0119164,
                -0.0278821,
                0.0404966,
                0.0996638,
                -0.0207574,
                0.0492522,
                0.075671,
                -0.0365449,
                0.0142847,
                -0.00197312,
                -0.0954644,
                -0.0951928,
                -0.0139315,
                0.0611989,
                -0.0405923,
                0.0562943,
                0.0333862,
                -0.00569917,
                -0.0165479,
                0.00599779,
                -0.0259285,
                0.015101,
                0.00995583,
                0.0173302,
                0.0349491,
                0.0104656,
                0.0425214,
                0.0891577,
                -0.0362226,
                0.0545897,
                0.0200469,
                -0.0252019,
                0.0363855,
                0.0408747,
                0.0439044,
                0.0596575,
                0.0998818,
                -0.0445673,
                0.0854078,
                0.0128089,
                0.0365417,
                -0.059777,
                -0.0682477,
                0.0221707,
                0.0211674,
                -0.0459233,
                -0.00711961,
                -0.0522113,
                -0.0351288,
                -0.0920528,
                -0.0330767,
                0.0653568,
                0.0579232,
                -0.0748487,
                0.0350744,
                -0.0106037,
                0.0954037,
                0.0793604,
                0.0435663,
                -0.0364981,
                0.0198662,
                0.0423866,
                0.0223449,
                -0.0423968,
                0.0855264,
                -0.0410268,
                -0.0336926,
                0.0243011,
                0.020808,
                -0.0678551,
                0.0817241,
                0.0819249,
                -0.0486076,
                -0.0681221,
                -0.0391143,
                -0.0140053,
                0.00256551,
                -0.0257155,
                0.0492289,
                0.0955774,
                0.0150478,
                0.0381925,
                0.0379855,
                -0.0444061,
                -0.0599574,
                0.0119423,
                -0.0696157,
                -0.0244826,
                0.0587311,
                0.0470039,
                -0.0219437,
                0.0809864,
                0.0722547,
                -0.0524023,
                0.0266549,
                -0.0305157,
                -0.0224687,
                0.0452282,
                0.0728741,
                0.00708117,
                -0.0376231,
                0.0763289,
                -0.0455741,
                -0.0584506,
                -0.0209886,
                0.0770307,
                -0.0363707,
                -0.027934,
                -0.0757735,
                -0.0482102,
                -0.0783793,
                -0.00418644,
                0.0514491,
                0.0393579,
                -0.0244656,
                -0.0522853,
                0.0390732,
                0.0441058,
                -0.0969746,
                -0.0726708,
                -0.00705949,
                -0.0548473,
                -0.000670906,
                0.0990615,
                0.0611515,
                -0.0696333,
                -0.0927418,
                -0.0453607,
                0.0441343,
                -0.00715617,
                0.00168485,
                -0.0425016,
                -0.0645377,
                0.011552,
                0.0859964,
                0.0294484,
                -0.0771203,
                -0.0647883,
                -0.0552289,
                -0.0682737,
                0.0549183,
                0.099712,
                0.0825884,
                0.0458663,
                0.0952751,
                -0.00282052,
                0.0799133,
                -0.0812104,
                -0.00731968,
                -0.0981901,
                0.0804472,
                0.0052884,
                0.0399634,
                0.0251672,
                -0.0244675,
                -0.0426603,
                -0.023807,
                -0.0810778,
                -0.0223057,
                0.0551525,
                0.016412,
                -0.00385645,
                0.0135876,
                0.0520222,
                0.0106515,
                -0.0231256,
                -0.0885291,
                0.0345025,
                -0.0282143,
                -0.0455678,
                0.00935722,
                0.0763574,
                0.0191571,
                -0.0736378,
                0.0036345,
                0.00215073,
                0.0184675,
                -0.057101,
                -0.0317787,
                -0.0552904,
                0.0492697,
                -0.0375311,
                -0.0519782,
                -0.0088728,
                0.0632815,
                -0.0384809,
                -0.0803681,
                0.0676732,
                -0.0652314,
                -0.0359329,
                -0.0906691,
                0.0388831,
                -0.067984,
                -0.00120988,
                0.0554848,
                0.0634366,
                0.0631689,
                -0.0817972,
                0.0598289,
                -0.0410443,
                0.0863895,
                -0.00124071,
                0.0432138,
                -0.0198607,
                -0.0453561,
                -0.00157728,
                -0.0362703,
                0.0755764,
                -0.0508228,
                -0.0120705,
                -0.0229987,
                -0.0445198,
                0.0047788,
                0.0540558,
                -0.066913,
                0.0492114,
                -0.0320166,
                -0.0728384,
                0.0164235,
                -0.0732078,
                -0.0459241,
                -0.0049411,
                0.0268482,
                0.0582184,
                0.0363325,
                -0.0198113,
                -0.060351,
                0.071052,
                0.0923712,
                0.0182466,
                -0.0568206,
                0.0634168,
                -0.0966325,
                0.0450156,
                -0.0126934,
                0.0118903,
                -0.0281683,
                0.0926732,
                0.0990876,
                0.0700147,
                0.0116931,
                0.0972513,
                -0.0571425,
                0.0349574,
                -0.0925428,
                0.0219858,
                -0.0622165,
                -0.0695836,
                0.0807606,
                -0.0520514,
                -0.0226482,
                0.0272689,
                0.0118435,
                -0.0510412,
                -0.0200594,
                -0.0987864,
                0.0752142,
                0.0460003,
                0.0161315,
                -0.0436361,
                -0.00514503,
                -0.000675517,
                0.0682124,
                -0.0421444,
                -0.00911365,
                0.002734,
                0.0263116,
                0.0459142,
                0.091572,
                -0.0309925,
                -0.0885616,
                0.088004,
                -0.0393858,
                -0.0112651,
                0.028437,
                0.0863913,
                -0.0546874,
                0.0980707,
                -0.00815106,
                0.00599438,
                -0.0490531,
                0.0351407,
                -0.0376835,
                -0.0999823,
                -0.0111333,
                0.0648988,
                -0.0748592,
                0.0232282,
                0.0248046,
                0.0779938,
                -0.0938724,
                0.0277077,
                0.0300456,
                0.0167342,
                0.0104049,
                -0.0924414,
                0.0738559,
                -0.0578459,
                -0.0615561,
                0.0207634,
                -0.0339629,
                -0.00199387,
                0.023557,
                -0.0676194,
                -0.00348176,
                -0.0439559,
                -0.0351569,
                -0.0929882,
                -0.0926515,
                -0.0656286,
                0.0632607,
                -0.0935243,
                0.0972278,
                0.0815915,
                0.0577484,
                -0.0631416,
                0.0204926,
                0.00860661,
                -0.0849424,
                0.061862,
                -0.0334175,
                0.0297498,
                0.0987948,
                0.0345879,
                -0.0701996,
                0.0396406,
                -0.037846,
                -0.0245383,
                -0.0467359,
                -0.0679238,
                0.0176743,
                -0.0374063,
                0.080724,
                -0.0825579,
                -0.0807233,
                0.0834319,
                0.0594291,
                -0.074524,
                -0.0896616,
                0.0619945,
                -0.0719866,
                0.0948515,
                0.0772133,
                -0.0997164,
                -0.0758765,
                -0.0236334,
                -0.0810902,
                -0.0751322,
                0.0891364,
                -0.0747882,
                -0.0872105,
                -0.0961099,
                0.0674133,
                0.0194768,
                0.0118799,
                -0.0994091,
                0.019662,
                -0.0449133,
                -0.0246452,
                -0.0204808,
                -0.0506147,
                0.0369217,
                0.0864423,
                0.0560834,
                0.0792137,
                -0.0200409,
                -0.0486456,
                0.0837683,
                -0.0539508,
                0.0613402,
                0.0214057,
                0.0676569,
                0.0907813,
                -0.0951735,
                0.0861427,
                0.0241865,
                0.0464794,
                0.0806222,
                -0.0323506,
                -0.0877958,
                0.0645115,
                -0.0230341,
                0.0102747,
                0.0363039,
                0.0185298,
                -0.0974137,
                -0.0738274,
                0.0470113,
                -0.0823082,
                -0.0175195,
                -0.0305695,
                -0.00254811,
                -0.0462384,
                -0.0994877,
                -0.0400168,
                0.0901396,
                -0.0609144,
                -0.0348608,
                -0.0441771,
                -0.0935501,
                0.0432256,
                0.0460196,
                0.0231662,
                -0.0504467,
                0.0186933,
                -0.0659914,
                -0.00787497,
                0.00287389,
                0.0474483,
                0.0907595,
                0.0530242,
                0.0823464,
                -0.0096307,
                0.0859108,
                0.0887016,
                -0.0595377,
                0.091106,
                -0.0461104,
                -0.0451303,
                -0.0801198,
                0.0919211,
                0.0989469,
                0.0562446,
                -0.056833,
                -0.0344731,
                -0.0123433,
                -0.0287116,
                0.00580874,
                -0.0442191,
                -0.00809084,
                0.0715591,
                0.0784316,
                0.0773763,
                -0.0806861,
                0.0947827,
                -0.011913,
                0.0982773,
                0.0781911,
                0.0772439,
                0.0548335,
                -0.0803774,
                -0.0587572,
                -0.0410086,
                -0.0030078,
                0.0550627,
                0.0230218,
                -0.024395,
                0.0490738,
                -0.0300345,
                -0.0652424,
                0.0638706,
                0.0936268,
                0.0217442,
                -0.0425853,
                0.00925392,
                0.0981572,
                0.00319079,
                -0.00922679,
                -0.0243143,
                0.0885742,
                -0.0995814,
                -0.090002,
                0.0489703,
                0.0205339,
                -0.0654587,
                0.0568342,
                0.0861847,
                0.0442494,
                -0.0485358,
                0.0803353,
                0.0980303,
                0.0578392,
                -0.064726,
                0.0576479,
                -0.0872203,
                0.0852439,
                0.0347684,
                0.0493065,
                0.0911156,
                -0.0455132,
                0.0895849,
                -0.0773195,
                -0.0229538,
                0.00912303,
                0.0534437,
                0.0443318,
                0.0665841,
                0.0771509,
                0.0718014,
                0.0713999,
                -0.0435501,
                0.0427666,
                -0.0895061,
                0.0243903,
                -0.0325195,
                -0.0423703,
                -0.00589939,
                -0.0978221,
                -0.0239197,
                -0.0418341,
                -0.0203738,
                0.0296069,
                0.0800771,
                -0.0549402,
                -0.0700652,
                0.0300953,
                0.04518,
                -0.0170883,
                0.0763078,
                0.0536578,
                0.0118965,
                0.0473399,
                0.0992218,
                -0.0770671,
                0.0787682,
                0.0824372,
                0.0357331,
                0.0369641,
                0.0279196,
                0.0860882,
                -0.0506182,
                -0.0797156,
                0.0165519,
                0.0719889,
                -0.0272361,
                0.0708177,
                0.0077195,
                -0.037456,
                -0.0697731,
                0.0658055,
                0.0763049,
                0.00626004,
                -0.0915131,
                0.0181497,
                -0.0281703,
                -0.00870522,
                0.0439597,
                0.048303,
                -0.0995869,
                0.097984,
                -0.0494129,
                0.0351824,
                -0.0782707,
                -0.0865272,
                -0.0510746,
                0.0544809,
                0.035432,
                0.0799075,
                0.0399774,
                0.0119161,
                0.046182,
                0.075903,
                0.0800288,
                0.0404766,
                0.0993748,
                -0.0802901,
                0.0701729,
                0.0965049,
                -0.0568287,
                -0.0774034,
                0.00748316,
                -0.00755561,
                0.0253902,
                -0.0889387,
                -0.0474045,
                -0.0278571,
                0.0311281,
                0.020228,
                0.00600075,
                0.0584612,
                0.0607576,
                0.0727912,
                -0.0793759,
                0.0351712,
                -0.0630624,
                -0.090434,
                -0.0118495,
                -0.0503087,
                -0.0997828,
                -0.0829584,
                0.0327703,
                -0.0959433,
                0.0434829,
                -0.0451793,
                -0.0596669,
                -0.0286096,
                -0.0612097,
                0.0646268,
                0.099679,
                0.0177047,
                0.0845666,
                0.076905,
                0.0579733,
                -0.0475043,
                -0.0723881,
                0.0227911,
                0.0409156,
                0.0679084,
                -0.0533342,
                -0.0735487,
                0.0574739,
                -0.047041,
                0.0497206,
                -0.091428,
                0.00697961,
                0.064905,
                0.0075637,
                0.0326307,
                0.0522271,
                -0.0360766,
                0.0394613,
                0.031667,
                -0.097313,
                -0.0614097,
                -0.0130464,
                0.00518483,
                0.0921589,
                0.0155629,
                -0.0194076,
                -0.0242366,
                0.0421792,
                -0.0857975,
                0.0174269,
                0.0811766,
                0.000559668,
                -0.059584,
                -0.0329739,
                0.0152575,
                0.0822338,
                0.0349655,
                0.054011,
                0.00173553,
                0.03275,
                -0.0564797,
                -0.0639512,
                0.0115969,
                -0.0959144,
                0.0999787,
                -0.0567478,
                0.00860216,
                -0.0979065,
                -0.00926278,
                0.0374467,
                -0.0204177,
                -0.0163519,
                -0.0500625,
                0.0912276,
                0.0296284,
                -0.0154378,
                -0.0187071,
                0.0947953,
                -0.0910453,
                0.00285997,
                0.030929,
                -0.0274817,
                0.0991223,
                0.0789939,
                0.00892705,
                -0.0485117,
                0.0577427,
                -0.0106527,
                -0.0379716,
                0.08352,
                -0.082573,
                0.0515942,
                -0.0141631,
                -0.045936,
                0.00859489,
                0.094902,
                0.000356017,
                -0.000102837,
                0.0168093,
                0.0939048,
                -0.0966991,
                -0.0173745,
                0.0792782,
                0.0130749,
                -0.0246006,
                0.0352225,
                0.0102668,
                -0.0864684,
                -0.0939553,
                -0.0272514,
                -0.0239881,
                0.0880389,
                0.0186071,
                -0.0382221,
                -0.036585,
                -0.0746915,
                0.0524727,
                0.0223679,
                -0.0446441,
                0.0325654,
                0.00224448,
                -0.0890712,
                0.015133,
                0.00410873,
                -0.00196442,
                -0.0673406,
                0.0953088,
                0.0477508,
                -0.0243201,
                0.09576,
                0.0810813,
                0.0130856,
                -0.0763151,
                0.0883096,
                -0.0533567,
                -0.05711,
                -0.0693814,
                0.0876774,
                0.0739095,
                0.0485642,
                0.095245,
                0.0394679,
                0.0472894,
                0.0316953,
                0.045412,
                0.081173,
                -0.0924795,
                0.0262192,
                0.0419652,
                0.0947464,
                0.0777676,
                -0.0341315,
                0.0137372,
                -0.0689869,
                0.0325306,
                -0.0945432,
                0.0630776,
                0.092711,
                0.0468348,
                0.060335,
                0.0488838,
                0.0232909,
                -0.0247833,
                0.0648967,
                -0.0106778,
                -0.0838788,
                -0.0491665,
                -0.0573089,
                -0.0727071,
                0.0905338,
                -0.085775,
                -0.000645013,
                0.00727711,
                -0.0309987,
                0.0340578,
                -0.0511725,
                -0.00255622,
                0.0792664,
                0.0444338,
                0.0754109,
                0.0166995,
                -0.061121,
                0.00487358,
                0.0140295,
                -0.0459681,
                0.0269682,
                0.00839219,
                -0.0412802,
                -0.085442,
                0.0673998,
                0.044495,
                -0.0974969,
                -0.0757205,
                -0.0767241,
                0.0790501,
                -0.0858249,
                -0.0178463,
                0.0352169,
                -0.0437551,
                -0.0461185,
                0.0759291,
                0.0741074,
                -0.0904816,
                0.0268284,
                -0.0236421,
                -0.0794985,
                0.0894226,
                -0.00287182,
                0.0824265,
                -0.0204711,
                -0.00128797,
                0.0205899,
                0.0337522,
                -0.0449997,
                0.0407285,
                -0.00182646,
                0.0465505,
                -0.0166454,
                0.0143657,
                0.0892833,
                0.0821339,
                0.0355138,
                -0.0765065,
                0.043518,
                0.0262957,
                0.0346989,
                0.00659031,
                -0.012212,
                -0.0492881,
                0.040112,
                0.0203194,
                -0.0891827,
                -0.068565,
                -0.0574342,
                -0.0778351,
                0.096132,
                -0.0621122,
                0.0507766,
                -0.00747779,
                0.0950512,
                0.0385195,
                -0.0861696,
                -0.064917,
                -0.0543525,
                -0.0775167,
                0.0687496,
                0.0344623,
                0.0347988,
                0.031874,
                0.0060934,
                0.0510501,
                -0.0536957,
                0.0557434,
                0.014255,
                -0.0616551,
                -0.087026,
                0.0571552,
                0.0468845,
                -0.070652,
                0.0847604,
                -0.0572015,
                -0.0639635,
                -0.0473612,
                -0.046289,
                -0.0833298,
                0.0734011,
                0.024319,
                -0.0961195,
                0.0119202,
                0.0444112,
                0.0729612,
                -0.0846375,
                0.0130667,
                0.0505785,
                -0.0835297,
                0.0179599,
                0.07784,
                -0.0759422,
                0.0903574,
                -0.0273015,
                0.0783715,
                0.0407825,
                0.0106492,
                -0.0660169,
                -0.0971091,
                -0.0347396,
                -0.0386889,
                -0.0354012,
                0.0260735,
                -0.0169869,
                -0.0268096,
                -0.0384851,
                -0.00975023,
                -0.0753493,
                0.0986725,
                0.00872475,
                -0.091256,
                -0.0059785,
                0.0359004,
                -0.0857742,
                0.0198474,
                -0.0354037,
                0.0474679,
                0.00153874,
                -0.0304189,
                -0.059427,
                -0.00608163,
                -0.096739,
                0.0836357,
                0.0841603,
                0.0816067,
                -0.0557198,
                0.0570789,
                0.0395889,
                0.0358102,
                0.00193989,
                0.0951647,
                0.0078074,
                -0.0388271,
                0.0631596,
                -0.0867856,
                0.00824591,
                0.0943864,
                0.0636765,
                0.062975,
                -0.0840126,
                0.0276502,
                0.0580964,
                0.018538,
                -0.00443906,
                -0.00813458,
                -0.0515451,
                0.0752817,
                0.0285894,
                0.0243521,
                0.0440462,
                -0.0943581,
                0.0247222,
                -0.0707923,
                0.0636505,
                -0.00278031,
                0.0766605,
                0.0352952,
                -0.0133723,
                0.0999084,
                -0.0947545,
                -0.0270353,
                0.0283128,
                -0.0985559,
                0.0635913,
                -0.0330488,
                0.0533512,
                -0.0037284,
                -0.0415266,
                -0.0365257,
                -0.0636278,
                0.0680489,
                0.010363,
                0.0188162,
                0.0817952,
                -0.076702,
                0.0430275,
                0.0487961,
                0.0456028,
                0.0537105,
                0.0892489,
                0.094548,
                0.0246493,
                -0.0587319,
                -0.00823905,
                -0.0698338,
                -0.0491367,
                0.0662059,
                -0.0455088,
                0.0374261,
                0.0347047,
                -0.0798294,
                0.00414818,
                0.0618057,
                0.0850839,
                -0.0276659,
                -0.0579192,
                -0.0903559,
                -0.0706898,
                -0.0990199,
                -0.0985985,
                -0.0576434,
                0.0714324,
                0.080069,
                -0.0161062,
                0.0630472,
                -0.0662338,
                -0.0443671,
                0.0858721,
                0.0497968,
                0.0519043,
                0.0885971,
                -0.0678988,
                0.0953014,
                -0.0428859,
                0.00332231,
                0.0877455,
                0.0169031,
                -0.093205,
                0.0683121,
                -0.0239827,
                0.0403989,
                -0.0891723,
                -0.0702968,
                0.0540174,
                -0.0448474,
                -0.0936203,
                -0.0250749,
                -0.00124673,
                0.0395874
            ],
            "bias": [
                0.0217025,
                -0.043913,
                0.0295658,
                -0.0280296,
                -0.0603016,
                -0.0352701,
                0.0742453,
                0.0916883,
                0.0320353,
                -0.0742976,
                0.0856066,
                0.0154442,
                -0.0180954,
                0.00702483,
                0.0269756,
                0.0960261,
                -0.0552301,
                -0.0499191,
                0.0640708,
                0.0809528,
                -0.00793433,
                -0.0717404,
                0.0216501,
                0.0725944,
                -0.0318927,
                0.0366578,
                0.0534218,
                0.0946441,
                0.0887813,
                -0.0309173,
                0.0465218,
                0.075731,
                -0.0107479,
                0.0947197,
                -0.0831903,
                -0.0851269,
                0.00615141,
                -0.0602172,
                0.00463082,
                0.087065
            ],
            "internal": [
                0.0391062,
                0.0395626,
                -0.03844,
                -0.0143691,
                -0.0466561,
                0.00468512,
                -0.00290347,
                -0.0366302,
                -0.0931089,
                -0.00475127,
                -0.0744282,
                -0.0631609,
                0.0769248,
                -0.000604095,
                0.00295198,
                -0.0884127,
                0.00776036,
                -0.031404,
                -0.0193101,
                0.0278275,
                0.0835986,
                -0.0779128,
                0.0164693,
                0.0326104,
                -0.000163642,
                -0.0992972,
                -0.0889288,
                0.00475116,
                -0.0357244,
                -0.0709432,
                -0.00410882,
                -0.0730478,
                0.00647113,
                -0.0787494,
                -0.00354043,
                -0.0116193,
                0.00567383,
                -0.0966431,
                0.0863825,
                -0.099858,
                -0.0138293,
                -0.00202938,
                0.049532,
                -0.0148017,
                0.0847761,
                -0.0646509,
                0.0702552,
                -0.0823969,
                -0.0452839,
                -0.0527828,
                0.0881944,
                -0.0104896,
                -0.0802868,
                0.069113,
                -0.0538671,
                0.0627359,
                -0.0693008,
                0.0371085,
                0.029663,
                -0.0398178,
                -0.021129,
                -0.00615363,
                0.0136134,
                0.04898,
                -0.0978723,
                -0.0955637,
                -0.0481832,
                -0.00917087,
                0.0818802,
                -0.0986075,
                -0.0257965,
                -0.0949226,
                0.0567622,
                -0.0169341,
                0.0198386,
                0.00629269,
                0.0333996,
                0.0151385,
                -0.0107598,
                0.074371,
                0.0529869,
                -0.0976723,
                -0.0287977,
                0.0784694,
                0.0773091,
                0.000243182,
                -0.0163786,
                0.0812074,
                0.0270025,
                -0.0963708,
                0.0045881,
                -0.0277141,
                -0.0890308,
                -0.0207832,
                -0.0683746,
                0.0491983,
                -0.00341269,
                -0.00628276,
                -0.0518526,
                0.0865765,
                -5.18063e-05,
                -0.0694744,
                0.0773208,
                0.0454872,
                -0.0938378,
                0.0026883,
                -0.0768644,
                -0.0829934,
                -0.0794922,
                0.0306473,
                -0.0820361,
                0.0136163,
                -0.092524,
                -0.0298705,
                0.0485085,
                -0.0907554,
                0.0264536,
                -0.0100774,
                0.0143219,
                -0.0966947,
                -0.0919338,
                0.0515862,
                0.074739,
                -0.032355,
                -0.0451224,
                0.0224551,
                0.0157606,
                -0.0402867,
                0.0879672,
                0.0251574,
                -0.0492724,
                0.0683381,
                -0.0715289,
                -0.00207438,
                -0.0672212,
                0.0827239,
                -0.0103597,
                0.00339338,
                -0.0548971,
                -0.0303284,
                0.0864625,
                -0.0331218,
                0.0869784,
                -0.0902493,
                -0.0446668,
                -0.00450552,
                0.0900505,
                -0.0232787,
                0.0948575,
                -0.0525626,
                -0.0386485,
                -0.0626036,
                -0.00127991,
                0.0794439,
                0.0627384,
                -0.0764587,
                0.031638,
                -0.0972871,
                0.0176939,
                0.00037103,
                -0.0064405,
                -0.0977716,
                -0.016891,
                0.00440479,
                0.0376085,
                -0.022536,
                -0.0411887,
                -0.0640173,
                0.0548863,
                -0.0848226,
                0.00793233,
                0.0475679,
                -0.0135769,
                -0.0798046,
                0.0691725,
                -0.0585743,
                -0.0697769,
                -0.00164352,
                -0.00963441,
                -0.0602546,
                0.0971019,
                0.0834989,
                -0.0760423,
                -0.0259739,
                0.0385773,
                0.0379496,
                -0.0345578,
                -0.0676742,
                -0.0321698,
                -0.0360353,
                -0.0674382,
                -0.029998,
                0.0784047,
                0.0837867,
                0.0885442,
                -0.066601,
                0.0599407,
                0.0367664,
                -0.0587774,
                -0.0948184,
                -0.0321194,
                -0.00817781,
                -0.0113465,
                0.0712975,
                -0.0431297,
                -0.0776893,
                -0.0157229,
                -0.0537134,
                -0.0193265,
                -0.0959524,
                0.0649771,
                0.000722638,
                -0.0897241,
                -0.066458,
                -0.0621732,
                -0.0200978,
                -0.00120366,
                -0.00566194,
                0.0543409,
                -0.0180551,
                -0.0966207,
                0.0495124,
                -0.028722,
                0.0911825,
                0.0799991,
                -0.0184089,
                -0.00272298,
                -0.0162612,
                -0.0726707,
                -0.0126692
            ]
        },
        "subsample_level_0": {
            "input": [
                0.0355574,
                0.0781443,
                0.076343,
                -0.0752298,
                -0.0659288,
                0.022352,
                -0.0803703,
                -0.0537124,
                -0.00193335,
                0.0889851,
                -0.0158825,
                0.0180196,
                -0.00482098,
                0.0995479,
                -0.0317275,
                -0.0687334,
                -0.0233601,
                -0.0448568,
                0.0580963,
                0.0288616,
                0.063883,
                -0.0602209,
                -0.0879,
                0.0404933,
                0.0613928,
                0.0182274,
                0.0672128,
                -0.043426,
                -0.088622,
                0.0554598,
                -0.0827981,
                -0.0723334,
                -0.0868942,
                0.0393076,
                0.0650971,
                0.0900712,
                -0.0400931,
                0.00564659,
                0.0373716,
                -0.00299216,
                -0.080876,
                0.0304094,
                0.0135182,
                -0.0359105,
                -0.0459841,
                0.031039,
                0.0344462,
                0.0863041,
                -0.07674,
                0.0780681
            ],
            "bias": [
                0.0705381,
                0.0683482,
                0.0368186,
                0.0958455,
                -0.0405405
            ],
            "internal": []
        },
        "blstm_level_1": {
            "input": [
                -0.0336479,
                0.0734279,
                -0.0367062,
                -0.0530303,
                0.0919282,
                -0.0502012,
                0.0118207,
                0.0429578,
                0.02078,
                -0.0399194,
                -0.0048339,
                0.0599925,
                -0.0700233,
                0.0116431,
                -0.0459733,
                -0.0130509,
                0.0947561,
                -0.0950729,
                -0.0222368,
                0.065299,
                0.0971697,
                -0.0863972,
                -0.00129576,
                0.0786735,
                -0.00543843,
                0.0239668,
                0.0939969,
                -0.0162045,
                0.0293215,
                0.0891607,
                -0.0212671,
                -0.040739,
                -0.0248323,
                0.0790839,
                -0.0737463,
                -0.0676317,
                0.0398011,
                -0.0199578,
                -0.0454729,
                -0.0603713,
                0.0830698,
                0.0435699,
                0.0374157,
                -0.075982,
                -0.0975415,
                0.00706866,
                -0.0397574,
                -0.0837484,
                -0.0164383,
                0.00661498,
                0.0205885,
                -0.0986349,
                -0.0522102,
                0.0271746,
                -0.00766361,
                0.0628705,
                0.0416366,
                -0.026555,
                0.090348,
                0.0750554,
                0.0363377,
                0.0417401,
                -0.0859323,
                0.0501018,
                0.0884627,
                -0.0744511,
                -0.0729049,
                0.0858526,
                0.0277463,
                0.091192,
                0.0752193,
                -0.0712841,
                0.0984532,
                0.0474421,
                -0.0473763,
                -0.00284854,
                -0.0868463,
                -0.0848635,
                0.0754278,
                0.0629109,
                -0.00046045,
                0.0986934,
                -0.0936467,
                -0.0738994,
                0.0619455,
                -0.0450829,
                0.00294999,
                0.0318289,
                -0.0350754,
                -0.0858283,
                -0.017873,
                -0.0158895,
                -0.0138991,
                0.0245315,
                0.0760447,
                -0.0817777,
                -0.047829,
                0.00432561,
                0.0255609,
                0.0980008,
                0.0503327,
                -0.069147,
                0.0572359,
                0.0549336,
                0.0527588,
                -0.0294942,
                -0.0752332,
                0.0106488,
                -0.0529701,
                0.0183404,
                0.0823655,
                -0.0486204,
                0.0397225,
                0.0650313,
                -0.0101214,
                -0.0943194,
                0.09438,
                0.0841704,
                0.0566875,
                0.000625779,
                0.0455193,
                0.0294719,
                0.0242064,
                0.074959,
                0.0656527,
                -0.0635757,
                0.0760007,
                -0.0942729,
                0.0399642,
                -0.051319,
                0.0230163,
                -0.073355,
                -0.0227197,
                0.020882,
                -0.0135039,
                0.0426788,
                -0.0438055,
                -0.0851013,
                -0.0558252,
                0.0553741,
                0.0469831,
                -0.00273054,
                -0.0329377,
                0.0906859,
                -0.0494409,
                0.0759344,
                -0.084886,
                -0.0979563,
                -0.0545028,
                0.0298763,
                0.00523285,
                -0.0271545,
                -0.0469654,
                -0.0178753,
                0.0234304,
                -0.00646096,
                0.0960363,
                0.0218934,
                0.0624906,
                0.0129119,
                0.0779573,
                -0.0563068,
                -0.0352112,
                -0.0901887,
                0.0123736,
                0.0293793,
                -0.0886285,
                -0.0278224,
                0.0447166,
                0.0125221,
                0.0144162,
                0.07164,
                -0.0806815,
                0.0594245,
                0.0896576,
                -0.026503,
                -0.0586672,
                -0.0410401,
                0.0123481,
                0.0350502,
                0.0365905,
                -0.0182041,
                0.0362307,
                -0.0034851,
                -0.0653306,
                -0.0211091,
                0.081847,
                -0.0630567,
                -0.0715159,
                -0.0359294,
                -0.0636877,
                0.0780884,
                0.0120983,
                -0.0310938,
                -0.0393167,
                -0.0836229,
                -0.00445367,
                0.00901665,
                0.029562,
                0.020216
            ],
            "bias": [
                0.0485194,
                -0.069136,
                0.0418311,
                0.0472471,
                -0.0562057,
                0.0086911,
                -0.0337402,
                -0.0304973,
                0.0278516,
                0.0660925,
                -0.0925207,
                0.0926741,
                0.0296763,
                -0.0602993,
                0.039319,
                -0.0181253,
                0.0305129,
                -0.0595816,
                0.00108582,
                -0.074655,
                0.0419513,
                0.051085,
                -0.0169539,
                0.0845068,
                -0.0669811,
                0.0319525,
                -0.0334829,
                -0.0992332,
                0.0712183,
                0.014449,
                0.0468194,
                -0.00585654,
                0.0913576,
                -0.0960337,
                0.0108467,
                0.00990939,
                0.024744,
                0.0373992,
                -0.0784539,
                -0.0707655
            ],
            "internal": [
                0.0839912,
                0.00802684,
                -0.0552607,
                -0.0123522,
                0.0659865,
                -0.0788383,
                0.0562188,
                0.0270377,
                0.0110632,
                -0.00358349,
                -0.0394272,
                -0.0215177,
                0.0943865,
                -0.0141318,
                0.00771369,
                0.00952723,
                -0.0585879,
                0.0978338,
                -0.0832205,
                -0.0918735,
                -0.0645625,
                0.0674421,
                0.0666749,
                -0.0657267,
                -0.0947039,
                0.0421201,
                -0.00611073,
                -0.0748522,
                0.0493555,
                -0.0644439,
                -0.044434,
                0.0183194,
                -0.0847419,
                -0.00145807,
                0.0681749,
                0.0565597,
                0.0298253,
                0.0118116,
                -0.0787456,
                0.00292274,
                0.0585561,
                -0.0655015,
                0.0373037,
                -0.0613218,
                -0.050038,
                -0.0124238,
                0.0457129,
                0.00811756,
                0.0838996,
                0.0779528,
                -0.0526762,
                -0.0214708,
                -0.00244732,
                0.0740066,
                0.0415992,
                0.0933308,
                0.0848933,
                -0.0843551,
                0.0998569,
                -0.0790315,
                0.00285682,
                0.0366841,
                0.0297198,
                0.0887975,
                0.0786759,
                0.0371664,
                0.0116311,
                0.0964163,
                0.0591906,
                -0.0116167,
                -0.0219554,
                -0.0703814,
                0.0363922,
                0.0229939,
                0.073962,
                -0.0755224,
                -0.0814091,
                -0.022095,
                -0.0476368,
                -0.0711756,
                0.0880387,
                0.0648685,
                -0.0102065,
                -0.0422049,
                -0.0608143,
                0.00995792,
                -0.00703198,
                -0.0369826,
                0.0855026,
                0.00791642,
                -0.0613708,
                0.0777848,
                0.0582808,
                -0.0219951,
                0.0349912,
                0.0898976,
                -0.0945819,
                0.0670387,
                0.0443478,
                -0.0345664,
                0.0870152,
                0.0632419,
                0.0351904,
                0.064432,
                -0.0373497,
                0.000837834,
                -0.0422277,
                -0.0893511,
                -0.0556938,
                0.0837518,
                0.0773173,
                0.03817,
                0.0979759,
                0.0405039,
                -0.0379984,
                -0.0678976,
                -0.0674265,
                0.0521463,
                0.0484866,
                0.0782785,
                0.076888,
                -0.027223,
                0.0787921,
                0.0709058,
                -0.0968433,
                0.08954,
                -0.036341,
                0.0610511,
                -0.089155,
                0.0674445,
                -0.0478723,
                0.0829599,
                -0.0229004,
                0.0351633,
                -0.0660372,
                -0.0462703,
                0.0644379,
                0.0528788,
                -0.0600397,
                0.0798666,
                -0.0400966,
                0.0652849,
                0.0988073,
                -0.0873708,
                0.00289243,
                0.0682904,
                -0.00478105,
                0.0313284,
                -0.0938134,
                0.0234734,
                0.0407343,
                0.0361477,
                0.00825598,
                0.011991,
                0.00696882,
                0.0525516,
                -0.0130374,
                -0.00293879,
                0.056356,
                -0.0221518,
                0.0721003,
                0.0261703,
                -0.0804474,
                0.0854713,
                -0.018279,
                0.0398161,
                -0.0534219,
                0.0847911,
                0.0759373,
                0.0344284,
                0.00607724,
                -0.0131591,
                -0.0717969,
                0.0445493,
                0.0154829,
                -0.0170334,
                0.0286088,
                0.0622865,
                -0.0666142,
                -0.0939113,
                -0.0804331,
                -0.063425,
                -0.0642361,
                0.0253018,
                0.000406031,
                -0.0400549,
                -0.0301277,
                -0.0363316,
                0.0911929,
                0.082172,
                0.0924816,
                0.0444492,
                -0.0530823,
                0.0383223,
                -0.0994483,
                -0.0165239,
                -0.0219635,
                -0.0286977,
                0.0565166,
                -0.0571482,
                -0.0298401,
                -0.0898408,
                0.0484342,
                -0.0141693,
                -0.0526724,
                -0.0791705,
                0.043298,
                -0.0660511,
                0.0845155,
                -0.0818296,
                -0.0778655,
                0.0171364,
                -0.0709914,
                -0.035486,
                -0.0835587,
                0.0924847,
                -0.0747856,
                -0.0883159,
                -0.0378252,
                0.0609191,
                -0.00465209,
                0.00315233,
                -0.0271616,
                -0.0968445,
                -0.0877401,
                -0.00989963,
                -0.000951368,
                -0.09012,
                0.0353681,
                0.0559899
            ]
        },
        "subsample_level_1": {
            "input": [
                0.0876888,
                0.00216753,
                -0.0691771,
                0.000535659,
                0.0877038,
                -0.0819369,
                0.051647,
                0.00690088,
                -0.0686254,
                -0.0256999,
                0.0484466,
                -0.0931797,
                -0.0442442,
                -0.0155416,
                -0.0392424,
                -0.0907958,
                0.0118917,
                -0.0783619,
                0.0316136,
                0.0331467,
                0.0125881,
                0.0225328,
                -0.00744099,
                -0.0487774,
                -0.0311143,
                -0.0822393,
                -0.0583505,
                -0.0226984,
                -0.0427774,
                -0.062506,
                -0.086593,
                -0.075761,
                -0.084607,
                0.025504,
                -0.0713714,
                0.0879374,
                0.0776216,
                0.0322852,
                0.0236121,
                -0.0778574,
                0.0579679,
                0.0128389,
                0.00523467,
                0.0419543,
                -0.0807892,
                -0.00037833,
                0.00104458,
                0.0938817,
                0.0552418,
                -0.0239797
            ],
            "bias": [
                -0.075207,
                0.0907228,
                -0.0358279,
                -0.0351126,
                -0.0653924
            ],
            "internal": []
        },
        "blstm_level_2": {
            "input": [
                0.0916137,
                -0.0140621,
                0.0212762,
                -0.0769954,
                0.0892421,
                -0.0243159,
                -0.0812187,
                0.077591,
                -0.0539613,
                -0.084341,
                -0.00413961,
                0.0115801,
                0.0746944,
                0.0548738,
                -0.0372173,
                0.0813156,
                0.0423466,
                -0.0864655,
                0.0900307,
                -0.0369016,
                0.0957431,
                -0.0455383,
                -0.0847583,
                0.0175501,
                0.0787857,
                -0.0583568,
                0.0491639,
                -0.0872119,
                -0.0165179,
                0.085554,
                -0.0850053,
                -0.00899298,
                0.0622448,
                0.0277678,
                0.0556881,
                -0.0216026,
                0.0960619,
                -0.0427856,
                -0.068187,
                -0.0638099,
                -0.042061,
                0.0264034,
                0.081493,
                0.0200712,
                -0.0843877,
                -0.0252125,
                -0.0289774,
                0.0177084,
                -0.0465717,
                -0.0555394,
                -0.0930855,
                0.0861428,
                -0.0879906,
                -0.00273562,
                0.054853,
                -0.000765076,
                0.0661184,
                0.0420789,
                -0.0125106,
                0.0645964,
                -0.0697277,
                -0.0792671,
                -0.012066,
                0.0326444,
                -0.077909,
                -0.023988,
                -0.0825103,
                -0.0365526,
                -0.031474,
                0.0653356,
                -0.061118,
                -0.0598064,
                -0.0476939,
                -0.0382102,
                0.076365,
                0.0646492,
                0.0872688,
                -0.0545139,
                0.0663381,
                -0.0394064,
                0.0751471,
                0.0508131,
                -0.0329558,
                -0.0529297,
                -0.0594823,
                0.0350435,
                0.00365309,
                -0.0783522,
                -0.0998976,
                0.0366971,
                0.0983132,
                0.0816556,
                -0.0362111,
                -0.00324108,
                -0.00243614,
                0.0161774,
                0.0106365,
                0.0245988,
                0.01809,
                -0.0927574,
                -0.0404022,
                0.0499808,
                0.0358925,
                -0.082799,
                -0.033583,
                0.052312,
                -0.0107574,
                -0.0951907,
                -0.0767359,
                0.00280153,
                0.0369522,
                0.0110952,
                -0.0411984,
                0.0682184,
                0.0705959,
                0.0752863,
                0.0522931,
                0.0725218,
                -0.0316476,
                0.0422985,
                -0.0414342,
                0.0347059,
                0.0785058,
                0.0764034,
                -0.0891065,
                -0.0438049,
                -0.0505201,
                -0.0145465,
                0.0747624,
                -0.0434131,
                0.0241575,
                0.0768491,
                0.0657235,
                -0.00116999,
                -0.045902,
                -0.0524816,
                0.0673839,
                -0.0159906,
                0.00288953,
                -0.0320331,
                0.0328939,
                -0.0537302,
                -0.0356762,
                0.0155341,
                0.0718886,
                0.0609729,
                -0.0107491,
                -0.032868,
                -0.0916128,
                0.0275806,
                -0.0200599,
                -0.0507328,
                -0.0229256,
                0.0260292,
                -0.0771327,
                0.0601918,
                0.0140592,
                -0.0890782,
                0.0580917,
                0.0612812,
                -0.0186916,
                0.0927081,
                0.0259135,
                0.0580192,
                0.0658737,
                -0.0533304,
                -0.0281019,
                -0.0172204,
                0.0228282,
                -0.0674284,
                -0.0959427,
                -0.0536494,
                0.0455125,
                0.0934398,
                0.0167169,
                -0.00599982,
                0.0814671,
                -0.021052,
                0.0031611,
                0.00230737,
                -0.046344,
                0.0410338,
                -0.096708,
                -0.00638252,
                -0.0177311,
                -0.0677594,
                -0.084056,
                0.0344268,
                0.0765812,
                -0.0750923,
                0.0595653,
                -0.0844664,
                -0.0778722,
                -0.021219,
                0.0828967,
                0.0416041,
                -0.0743952,
                -0.0536205,
                0.0776367,
                0.0720264
            ],
            "bias": [
                -0.1039,
                -0.064891,
                -0.0280989,
                -0.125159,
                0.0507727,
                -0.0527297,
                -0.0949844,
                -0.0605389,
                -0.00668338,
                0.0988743,
                0.061593,
                -0.0281974,
                0.0442019,
                -0.0759208,
                0.00574983,
                0.063763,
                -0.0364496,
                0.0930194,
                -0.00318074,
                -0.00310707,
                0.0866204,
                0.0738223,
                -0.0103502,
                -0.0768601,
                0.0402889,
                0.0903691,
                -0.0343082,
                -0.0807161,
                -0.0914129,
                -0.0546436,
                -0.00841616,
                -0.0302628,
                -0.0403264,
                0.062269,
                -0.0870414,
                -0.093822,
                -0.0500183,
                0.0581489,
                -0.0359939,
                -0.0818584
            ],
            "internal": [
                0.0420635,
                -0.0265866,
                0.0684632,
                0.0127981,
                -0.0220194,
                0.0341152,
                -0.0471598,
                -0.0822943,
                0.0601848,
                0.00438907,
                0.0230264,
                -0.0983707,
                -0.0323017,
                0.0449009,
                0.0596406,
                -0.0555957,
                -0.0428699,
                -0.0522435,
                0.00463411,
                0.00179706,
                -0.0627297,
                0.0656566,
                0.0221625,
                0.0449104,
                -0.063585,
                -0.0493224,
                -0.086654,
                0.0406033,
                0.036486,
                -0.095559,
                0.0245843,
                0.0345659,
                0.0867808,
                0.0291105,
                -0.0688639,
                0.000635302,
                0.0280769,
                -0.0363746,
                -0.046061,
                -0.00654472,
                -0.100413,
                -0.0526023,
                -0.0070855,
                -0.087039,
                0.0526613,
                0.0215836,
                0.0369404,
                -0.0818963,
                0.0283077,
                0.00493897,
                0.0126428,
                0.0378461,
                0.0425866,
                -0.0268345,
                -0.0845442,
                -0.0195008,
                0.0283125,
                0.0500115,
                0.0117521,
                0.0115303,
                0.0416086,
                -0.0218277,
                0.00821157,
                -0.0838932,
                -0.0439969,
                0.0754538,
                -0.0202031,
                -0.00747658,
                0.0648395,
                0.0678684,
                -0.0752117,
                0.0923275,
                0.0354878,
                -0.0350571,
                -0.0375857,
                -0.0452149,
                0.0955388,
                0.00758719,
                0.0276351,
                0.0250482,
                -0.0335672,
                -0.0613121,
                -0.0413267,
                -0.0619169,
                0.0754992,
                -0.0382018,
                -0.0576206,
                0.0683337,
                0.043607,
                0.0812875,
                -0.00938715,
                -0.00369931,
                0.0398121,
                -0.057243,
                0.0792533,
                -0.0470828,
                0.00264118,
                -0.0386496,
                -0.0613159,
                0.0405556,
                0.0506386,
                -0.0522911,
                0.00439417,
                -0.0982571,
                0.0457593,
                -0.0945284,
                0.00428169,
                -0.0764222,
                0.0550065,
                0.00225383,
                -0.0345173,
                0.0141831,
                -0.0606046,
                0.0120798,
                0.0910189,
                0.0196101,
                0.0524091,
                -0.0980096,
                -0.0736594,
                0.0691402,
                0.0250282,
                0.00842429,
                -0.0596094,
                -0.0279314,
                0.0851057,
                0.0502356,
                -0.0649896,
                0.0985562,
                0.0471963,
                -0.0105389,
                -0.0567443,
                -0.051606,
                -0.070066,
                0.0436732,
                -0.0352964,
                0.0782789,
                0.044962,
                0.0451846,
                0.0511488,
                0.0415175,
                0.0336684,
                -0.0683721,
                -0.063387,
                -0.0255972,
                0.00352469,
                -0.0747951,
                0.0686996,
                -0.0480882,
                -0.0459525,
                0.036343,
                0.0438744,
                0.0234516,
                0.0229059,
                0.0792853,
                -0.0653506,
                0.090285,
                0.0538916,
                -0.0484711,
                0.0279156,
                -0.0366036,
                0.0192432,
                0.0701455,
                0.0720801,
                0.0933413,
                0.0521313,
                -0.0921649,
                0.0186299,
                -0.0546607,
                -0.0964841,
                0.0998534,
                0.0992472,
                0.0692572,
                -0.0154765,
                -0.0799491,
                -0.00360073,
                -0.0126335,
                0.0438899,
                0.06101,
                0.0749096,
                0.0746455,
                -0.0242157,
                0.0992104,
                -0.0902409,
                0.0328638,
                0.0727952,
                -0.0300697,
                0.00733883,
                0.0111368,
                0.0424644,
                0.0964068,
                0.0516944,
                0.0767956,
                -0.0681691,
                0.0120414,
                -0.0235401,
                -0.065505,
                0.0508538,
                -0.0498837,
                -0.0922313,
                0.0938625,
                0.0818279,
                -0.0800843,
                -0.00582063,
                -0.0548199,
                -0.0184275,
                0.0641802,
                -0.089965,
                0.0905377,
                0.0313613,
                0.0934128,
                -0.0972477,
                -0.0841022,
                -0.0777538,
                0.0801252,
                -0.0164929,
                -0.0459423,
                -0.0194724,
                0.0566542,
                0.0529046,
                -0.00850931,
                -0.096015,
                -0.0337862,
                -0.00917155,
                -0.00974652,
                0.0179383,
                -0.0498355,
                -0.0309388,
                -0.0878309,
                0.0717774,
                -0.0775628
            ]
        },
        "output": {
            "input": [
                -0.031143,
                -0.0477702,
                -0.0252014,
                0.0386211,
                0.0376136,
                0.0911865,
                -0.0418363,
                0.00482382,
                0.0750734,
                0.0749305,
                -0.0363414,
                -0.0820334,
                -0.0905558,
                -0.0994867,
                -0.00707213,
                0.0077452,
                -0.0421602,
                0.0129833,
                0.0136503,
                0.0188297,
                0.0326809,
                -0.073434,
                0.0389462,
                -0.0497062,
                0.0958351,
                0.0443577,
                0.0213046,
                0.031881,
                0.0750932,
                0.0495992,
                0.0564736,
                0.0790487,
                0.050861,
                7.35303e-06,
                -0.0461164,
                0.0165447,
                0.0247836,
                0.0504831,
                0.0605007,
                -0.00244996,
                -0.0628701,
                -0.0815733,
                -0.0394063,
                -0.10479,
                -0.0025742,
                -0.0626297,
                -0.00759602,
                -0.0645907,
                0.0646371,
                0.0943869,
                0.0596562,
                0.0885295,
                0.0932474,
                0.0872762,
                -0.0712225,
                -0.0408092,
                -0.0363725,
                -0.0291432,
                0.0614392,
                0.0667432,
                0.0598836,
                0.0624229,
                0.0803232,
                0.0897285,
                -0.0632445,
                0.0619338,
                -0.0524618,
                0.00425779,
                0.0203035,
                -0.0648932,
                0.0605452,
                -0.0193774,
                -0.0639569,
                0.00575246,
                -0.0440344,
                0.0944758,
                -0.0659357,
                0.0211374,
                -0.00184271,
                0.0199224,
                0.001127,
                -0.0510056,
                0.099546,
                -0.0461251,
                0.0343167,
                -0.0233368,
                0.0143937,
                0.0656019,
                0.0324368,
                -0.0921716,
                -0.088045,
                -0.0732541,
                -0.0990067,
                0.0350624,
                0.0582126,
                0.0187557,
                -0.0262588,
                0.0327477,
                0.0837487,
                -0.0242684,
                0.0826333,
                -0.0417683,
                0.0556922,
                -0.0685776,
                -0.0592001,
                -0.0881275,
                0.0685829,
                -0.0407446,
                -0.0713335,
                -0.0562034,
                -0.000770372,
                0.086071,
                -0.0528773,
                0.0020848,
                0.0535023,
                -0.0251311,
                0.0871548,
                0.0114456,
                -0.0658911,
                0.0536164,
                0.0343501,
                -0.0893697,
                -0.0297758,
                -0.0532719,
                -0.0933942,
                -0.0699756,
                -0.0694192,
                -0.0497803,
                -0.0864345,
                0.0418672,
                -0.0350076,
                0.0014076,
                -0.0137794,
                0.0419356,
                -0.0134757,
                -0.0434402,
                -0.00896256,
                0.0123917,
                0.0845375,
                0.0420042,
                0.0459681,
                -0.0749202,
                -0.0766496,
                0.0817259,
                0.066249,
                0.00176469,
                0.0813541,
                0.0683998,
                -0.0841668,
                0.0826879,
                0.0446087,
                -0.000162841,
                0.0904596,
                -0.110967,
                -0.0227,
                0.0882254,
                0.0277357,
                -0.0539688,
                0.0654015,
                -0.0831602,
                0.0366287,
                -0.0348549,
                0.0391461,
                0.0460023,
                -0.0883985,
                -0.0964953,
                0.00378642,
                0.0915115,
                -0.0163981,
                0.0184481,
                -0.0651499,
                0.0210843,
                0.0185584,
                -0.0227241,
                0.093759,
                0.0350004,
                0.0196466,
                -0.0230106,
                -0.0351344,
                -0.00561603,
                0.0382612,
                0.0253666,
                0.0388981,
                -0.0733849,
                0.0210904,
                -0.0277691,
                -0.0507525,
                0.0852099,
                0.00138616,
                -0.0174655,
                -0.0274467,
                -0.0716855,
                -5.50948e-05,
                0.0951789,
                -0.00191511,
                -0.0938903,
                -0.0250799,
                -0.0332363,
                0.0172482,
                -0.0933257,
                0.0973444,
                -0.0909268,
                -0.0445973,
                0.086004,
                0.0941146,
                -0.00532528,
                0.0824225,
                0.0554135,
                -0.0869666,
                -0.0961199,
                -0.0488872,
                -0.0095317,
                0.0560666,
                0.0365528,
                0.0329735,
                -0.015007,
                0.0743273,
                -0.0281658,
                0.0584008,
                0.0214973,
                -0.0583844,
                0.0350307,
                -0.0673612,
                0.00320192,
                -0.0633238,
                0.0857153,
                0.0835214,
                0.0791904,
                0.062032,
                0.0954799,
                0.0888529,
                -0.0382194,
                0.0921964,
                0.0780129,
                -0.0356654,
                0.0487049,
                -0.0677617,
                0.0533577,
                0.0830124,
                -0.0969315,
                0.0100144,
                -0.0451757,
                -0.0204369,
                -0.014752,
                -0.0749562,
                0.00553627,
                0.0683565,
                -0.0895448,
                0.0134016,
                -0.0307782,
                0.013233,
                -0.0479687,
                -0.0325719,
                0.0221676,
                -0.053887,
                0.0530877,
                0.0138089,
                0.00867588,
                0.060353,
                0.0372367,
                -0.0969485,
                0.0288216,
                -0.0509091,
                -0.0996747,
                0.0269783,
                -0.087146,
                -0.0627962,
                -0.0822828,
                0.0497603,
                0.00855194,
                0.0553869,
                0.0718707,
                -0.0903797,
                0.0882029,
                0.0572176,
                0.102349,
                0.0668574,
                0.0635026,
                0.0920239,
                -0.0491459,
                0.0451304,
                -0.0242089,
                0.0975896,
                -0.0919698,
                -0.0321438,
                0.0375751,
                -0.0398403,
                -0.0579356,
                0.0953011,
                0.0248098,
                -0.0717147,
                0.0450009,
                -0.0797988,
                -0.00420721,
                -0.014823,
                0.0347449,
                0.0334601,
                0.0543477,
                -0.0437683,
                0.0167986,
                0.028689,
                0.0464849,
                0.0417356,
                0.066751,
                0.0788701,
                0.079178,
                -0.0624233,
                -0.00271896,
                0.0968514,
                0.03727,
                -0.0384289,
                -0.0702935,
                -0.052011,
                0.0320638,
                0.0804264,
                0.0929564,
                0.0454781,
                -0.0861283,
                -0.00982336,
                0.0311146,
                0.057222,
                0.0843443,
                -0.0201855,
                0.100294,
                0.0902212,
                -0.0826604,
                0.0159285,
                -0.0370821,
                0.051161,
                0.0492638,
                -0.0206832,
                0.0995891,
                -0.0269145,
                0.0700659,
                0.063617,
                0.082086,
                0.0896858,
                -0.0531266,
                -0.0628349,
                -0.076942,
                -0.0450295,
                -0.0312635,
                -0.0735343,
                -0.0309649,
                0.0661464,
                -0.0809954,
                -0.067929,
                0.0822914,
                0.0623199,
                -0.0124147,
                0.000672528,
                0.0145566,
                0.0974686,
                0.00100213,
                -0.0281029,
                -0.033358,
                0.0909989,
                0.0217343,
                0.0351397,
                0.0202779,
                -0.0256407,
                0.0565086,
                -0.0109369,
                -0.0783789,
                0.0827401,
                -0.0388165,
                -0.0358316,
                -0.079757,
                -0.0742751,
                -0.0530881,
                -0.0260262,
                0.0612233,
                -0.0307972,
                -0.0827531,
                -0.0497333,
                0.0358227,
                0.0841212,
                0.0644177,
                -0.0346478,
                0.0804498,
                0.036788,
                -0.0939442,
                0.0584583,
                0.083116,
                -0.0649972,
                0.0152156,
                0.0460717,
                -0.0057064,
                -0.0458543,
                -0.00141355,
                -0.0915012,
                0.0640663,
                0.000475274,
                -0.0150117,
                0.0732309,
                -0.0423058,
                -0.0644151,
                -0.0225021,
                -0.0173532,
                0.100001,
                -0.0355694,
                0.0886126,
                -0.0367762,
                -0.0706698,
                0.00215202,
                -0.0800359,
                0.0763572,
                0.0879663,
                -0.0831216,
                0.0228587,
                -0.0183022,
                -0.019739,
                -0.0313974,
                -0.0758216,
                0.00405821,
                0.0242282,
                0.0775451,
                0.0365435,
                0.0374608,
                -0.00473523,
                -0.0269538,
                -0.0712404,
                -0.066182,
                0.00251702,
                0.0862025,
                0.0121768,
                0.0450789,
                -0.0634404,
                0.0624552,
                -0.0373729,
                -0.00359617,
                -0.0358213,
                0.0457191,
                -0.0584531,
                0.0797745,
                -0.0175402,
                -0.0377695,
                -0.0514165,
                -0.0196917,
                0.0668236,
                0.0122852,
                -0.0578649,
                0.00724598,
                -0.0935432,
                -0.00964885,
                -0.0528791,
                -0.0846182,
                0.027534,
                -0.0334829,
                -0.0604096,
                -0.103803,
                -0.0422862,
                -0.0708291,
                -0.067868,
                0.0422506,
                0.0498417,
                -0.0671441,
                0.0464075,
                -0.0296576,
                0.0861116,
                -0.0271586,
                0.0274981,
                0.0187368,
                -0.0243489,
                -0.0309518,
                -0.0422183,
                -0.0466924,
                0.0368973,
                -0.093735,
                -0.070866,
                -0.0665962,
                -0.0587111,
                0.0435591,
                -0.0272,
                -0.0888567,
                0.0943802,
                -0.0710848,
                -0.0117697,
                0.00840955,
                -0.0765926,
                0.101761,
                -0.0480493,
                0.0113852,
                0.015201,
                0.0382328,
                0.0251657,
                0.0621507,
                -0.0959089,
                -0.0442639,
                0.0561555,
                0.0938,
                0.0312693,
                0.0619788,
                -0.0850193,
                0.045904,
                -0.0335183,
                0.0155468,
                0.0317473,
                0.0104184,
                -0.000846023,
                -0.0878882,
                -0.0747318,
                0.0834646,
                0.0559494,
                -0.0606462,
                -0.0882104,
                0.00580457,
                -0.0820606,
                -0.0737923,
                -0.0604628
            ],
            "bias": [
                -0.117072,
                0.198191,
                0.010536,
                -0.0344686,
                0.272445,
                -0.0388505,
                -0.0945745,
                -0.107673,
                -0.160932,
                -0.14011,
                0.052309,
                -0.110487,
                0.0975739,
                0.015469,
                -0.170441,
                0.245116,
                -0.177608,
                -0.120136,
                0.0152571,
                -0.00577382,
                -0.0551121,
                -0.0621169,
                0.050581,
                -0.0303144,
                -0.132842,
                -0.0344723,
                0.135328,
                -0.127453,
                -0.113397,
                -0.00569212,
                0.163883,
                0.0643036,
                -0.101521,
                -0.151208,
                0.155567,
                -0.134777,
                0.147242,
                0.113502,
                0.0978814,
                0.146608,
                -0.125146,
                0.0117982,
                -0.0131586,
                -0.108369,
                -0.0541346,
                0.107589,
                0.0337905,
                -0.194679,
                -0.130882,
                -0.197636,
                -0.0519167
            ],
            "internal": []
        }
    }
}